<?xml version="1.0" encoding="UTF-8" standalone="yes"?>
<PMML xmlns="http://www.dmg.org/PMML-4_4" xmlns:data="http://jpmml.org/jpmml-model/InlineTable" version="4.4">
	<Header>
		<Application name="JPMML-R" version="1.4.4"/>
		<Timestamp>2021-11-04T21:26:47Z</Timestamp>
	</Header>
	<DataDictionary>
		<DataField name="_target" optype="categorical" dataType="integer">
			<Value value="0"/>
			<Value value="1"/>
		</DataField>
		<DataField name="PC1" optype="continuous" dataType="float"/>
		<DataField name="PC2" optype="continuous" dataType="float"/>
		<DataField name="PC3" optype="continuous" dataType="float"/>
		<DataField name="PC4" optype="continuous" dataType="float"/>
		<DataField name="PC5" optype="continuous" dataType="float"/>
		<DataField name="PC6" optype="continuous" dataType="float"/>
		<DataField name="PC7" optype="continuous" dataType="float"/>
		<DataField name="PC8" optype="continuous" dataType="float"/>
		<DataField name="PC9" optype="continuous" dataType="float"/>
		<DataField name="PC10" optype="continuous" dataType="float"/>
		<DataField name="AgeAtTest" optype="continuous" dataType="float"/>
		<DataField name="MonthsSinceLastTest" optype="continuous" dataType="float"/>
		<DataField name="Gender.Male" optype="continuous" dataType="float"/>
		<DataField name="KeyPopulationType.GP" optype="continuous" dataType="float"/>
		<DataField name="KeyPopulationType.SW" optype="continuous" dataType="float"/>
		<DataField name="MaritalStatus.Married" optype="continuous" dataType="float"/>
		<DataField name="MaritalStatus.Divorced" optype="continuous" dataType="float"/>
		<DataField name="MaritalStatus.Polygamous" optype="continuous" dataType="float"/>
		<DataField name="MaritalStatus.Widowed" optype="continuous" dataType="float"/>
		<DataField name="MaritalStatus.Minor" optype="continuous" dataType="float"/>
		<DataField name="PatientDisabled.Not.Disabled" optype="continuous" dataType="float"/>
		<DataField name="EverTestedForHIV.Yes" optype="continuous" dataType="float"/>
		<DataField name="ClientTestedAs.Individual" optype="continuous" dataType="float"/>
		<DataField name="EntryPoint.VCT" optype="continuous" dataType="float"/>
		<DataField name="EntryPoint.OPD" optype="continuous" dataType="float"/>
		<DataField name="EntryPoint.MTC" optype="continuous" dataType="float"/>
		<DataField name="EntryPoint.IPD" optype="continuous" dataType="float"/>
		<DataField name="EntryPoint.MOBILE" optype="continuous" dataType="float"/>
		<DataField name="EntryPoint.Other" optype="continuous" dataType="float"/>
		<DataField name="EntryPoint.HB" optype="continuous" dataType="float"/>
		<DataField name="EntryPoint.PEDS" optype="continuous" dataType="float"/>
		<DataField name="TestingStrategy.VCT" optype="continuous" dataType="float"/>
		<DataField name="TestingStrategy.HB" optype="continuous" dataType="float"/>
		<DataField name="TestingStrategy.MOBILE" optype="continuous" dataType="float"/>
		<DataField name="TestingStrategy.HP" optype="continuous" dataType="float"/>
		<DataField name="TestingStrategy.NP" optype="continuous" dataType="float"/>
		<DataField name="TBScreening.No.Presumed.TB" optype="continuous" dataType="float"/>
		<DataField name="ClientSelfTested.No" optype="continuous" dataType="float"/>
	</DataDictionary>
	<MiningModel functionName="classification" algorithmName="XGBoost (GBTree)" x-mathContext="float">
		<MiningSchema>
			<MiningField name="_target" usageType="target"/>
			<MiningField name="PC1"/>
			<MiningField name="PC2"/>
			<MiningField name="PC3"/>
			<MiningField name="PC4"/>
			<MiningField name="PC5"/>
			<MiningField name="PC6"/>
			<MiningField name="PC7"/>
			<MiningField name="PC8"/>
			<MiningField name="PC9"/>
			<MiningField name="PC10"/>
			<MiningField name="AgeAtTest"/>
			<MiningField name="MonthsSinceLastTest"/>
			<MiningField name="Gender.Male"/>
			<MiningField name="KeyPopulationType.GP"/>
			<MiningField name="KeyPopulationType.SW"/>
			<MiningField name="MaritalStatus.Married"/>
			<MiningField name="MaritalStatus.Divorced"/>
			<MiningField name="MaritalStatus.Polygamous"/>
			<MiningField name="MaritalStatus.Widowed"/>
			<MiningField name="MaritalStatus.Minor"/>
			<MiningField name="PatientDisabled.Not.Disabled"/>
			<MiningField name="EverTestedForHIV.Yes"/>
			<MiningField name="ClientTestedAs.Individual"/>
			<MiningField name="EntryPoint.VCT"/>
			<MiningField name="EntryPoint.OPD"/>
			<MiningField name="EntryPoint.MTC"/>
			<MiningField name="EntryPoint.IPD"/>
			<MiningField name="EntryPoint.MOBILE"/>
			<MiningField name="EntryPoint.Other"/>
			<MiningField name="EntryPoint.HB"/>
			<MiningField name="EntryPoint.PEDS"/>
			<MiningField name="TestingStrategy.VCT"/>
			<MiningField name="TestingStrategy.HB"/>
			<MiningField name="TestingStrategy.MOBILE"/>
			<MiningField name="TestingStrategy.HP"/>
			<MiningField name="TestingStrategy.NP"/>
			<MiningField name="TBScreening.No.Presumed.TB"/>
			<MiningField name="ClientSelfTested.No"/>
		</MiningSchema>
		<Segmentation multipleModelMethod="modelChain" missingPredictionTreatment="returnMissing">
			<Segment id="1">
				<True/>
				<MiningModel functionName="regression" x-mathContext="float">
					<MiningSchema>
						<MiningField name="PC1"/>
						<MiningField name="PC2"/>
						<MiningField name="PC3"/>
						<MiningField name="PC4"/>
						<MiningField name="PC5"/>
						<MiningField name="PC6"/>
						<MiningField name="PC7"/>
						<MiningField name="PC8"/>
						<MiningField name="PC9"/>
						<MiningField name="PC10"/>
						<MiningField name="AgeAtTest"/>
						<MiningField name="MonthsSinceLastTest"/>
						<MiningField name="Gender.Male"/>
						<MiningField name="KeyPopulationType.GP"/>
						<MiningField name="KeyPopulationType.SW"/>
						<MiningField name="MaritalStatus.Married"/>
						<MiningField name="MaritalStatus.Divorced"/>
						<MiningField name="MaritalStatus.Polygamous"/>
						<MiningField name="MaritalStatus.Widowed"/>
						<MiningField name="MaritalStatus.Minor"/>
						<MiningField name="PatientDisabled.Not.Disabled"/>
						<MiningField name="EverTestedForHIV.Yes"/>
						<MiningField name="ClientTestedAs.Individual"/>
						<MiningField name="EntryPoint.VCT"/>
						<MiningField name="EntryPoint.OPD"/>
						<MiningField name="EntryPoint.MTC"/>
						<MiningField name="EntryPoint.IPD"/>
						<MiningField name="EntryPoint.MOBILE"/>
						<MiningField name="EntryPoint.Other"/>
						<MiningField name="EntryPoint.HB"/>
						<MiningField name="EntryPoint.PEDS"/>
						<MiningField name="TestingStrategy.VCT"/>
						<MiningField name="TestingStrategy.HB"/>
						<MiningField name="TestingStrategy.MOBILE"/>
						<MiningField name="TestingStrategy.HP"/>
						<MiningField name="TestingStrategy.NP"/>
						<MiningField name="TBScreening.No.Presumed.TB"/>
						<MiningField name="ClientSelfTested.No"/>
					</MiningSchema>
					<Output>
						<OutputField name="xgbValue" optype="continuous" dataType="float" isFinalResult="false"/>
					</Output>
					<Segmentation multipleModelMethod="sum">
						<Segment id="1">
							<True/>
							<TreeModel functionName="regression" noTrueChildStrategy="returnLastPrediction" x-mathContext="float">
								<MiningSchema>
									<MiningField name="PC3"/>
									<MiningField name="PC4"/>
									<MiningField name="PC5"/>
									<MiningField name="PC6"/>
									<MiningField name="PC7"/>
									<MiningField name="PC9"/>
									<MiningField name="PC10"/>
									<MiningField name="AgeAtTest"/>
									<MiningField name="MonthsSinceLastTest"/>
									<MiningField name="Gender.Male"/>
									<MiningField name="MaritalStatus.Married"/>
									<MiningField name="MaritalStatus.Divorced"/>
									<MiningField name="MaritalStatus.Widowed"/>
									<MiningField name="MaritalStatus.Minor"/>
									<MiningField name="EntryPoint.VCT"/>
									<MiningField name="EntryPoint.MTC"/>
									<MiningField name="TestingStrategy.VCT"/>
									<MiningField name="TestingStrategy.HB"/>
									<MiningField name="TestingStrategy.MOBILE"/>
									<MiningField name="TestingStrategy.HP"/>
									<MiningField name="TBScreening.No.Presumed.TB"/>
								</MiningSchema>
								<Node score="0.14594595">
									<True/>
									<Node score="0.06666667">
										<SimplePredicate field="TestingStrategy.VCT" operator="lessThan" value="2.000001"/>
										<Node score="-0.0">
											<SimplePredicate field="MaritalStatus.Divorced" operator="greaterOrEqual" value="0.5"/>
											<Node score="0.03529412">
												<SimplePredicate field="EntryPoint.MTC" operator="lessThan" value="0.5"/>
												<Node score="-0.38823533">
													<SimplePredicate field="PC5" operator="greaterOrEqual" value="0.59795344"/>
													<Node score="0.16363637">
														<SimplePredicate field="AgeAtTest" operator="greaterOrEqual" value="37.5"/>
													</Node>
													<Node score="-0.05454546">
														<SimplePredicate field="PC10" operator="greaterOrEqual" value="0.028343268"/>
													</Node>
												</Node>
												<Node score="0.17142859">
													<SimplePredicate field="TBScreening.No.Presumed.TB" operator="greaterOrEqual" value="0.5"/>
													<Node score="-0.3">
														<SimplePredicate field="TestingStrategy.HP" operator="lessThan" value="0.5"/>
													</Node>
												</Node>
												<Node score="0.42857146">
													<SimplePredicate field="EntryPoint.VCT" operator="lessThan" value="0.5"/>
												</Node>
											</Node>
											<Node score="0.45000002">
												<SimplePredicate field="PC7" operator="greaterOrEqual" value="-0.9232638"/>
											</Node>
										</Node>
										<Node score="-0.5453238">
											<SimplePredicate field="TBScreening.No.Presumed.TB" operator="lessThan" value="0.5"/>
											<Node score="-0.41538465">
												<SimplePredicate field="TestingStrategy.MOBILE" operator="lessThan" value="0.5"/>
												<Node score="-0.46415097">
													<SimplePredicate field="AgeAtTest" operator="greaterOrEqual" value="53.5"/>
													<Node score="-0.05454546">
														<SimplePredicate field="PC7" operator="greaterOrEqual" value="1.1565199"/>
													</Node>
												</Node>
												<Node score="-0.06486487">
													<SimplePredicate field="AgeAtTest" operator="greaterOrEqual" value="19.5"/>
												</Node>
											</Node>
											<Node score="0.20000002">
												<SimplePredicate field="MonthsSinceLastTest" operator="greaterOrEqual" value="13.5"/>
												<Node score="-0.15">
													<SimplePredicate field="AgeAtTest" operator="greaterOrEqual" value="41.0"/>
												</Node>
											</Node>
											<Node score="0.05454546">
												<SimplePredicate field="MaritalStatus.Married" operator="greaterOrEqual" value="0.5"/>
											</Node>
										</Node>
										<Node score="-0.5505762">
											<SimplePredicate field="TestingStrategy.HB" operator="lessThan" value="0.5"/>
											<Node score="-0.5514034">
												<SimplePredicate field="MaritalStatus.Minor" operator="lessThan" value="0.5"/>
												<Node score="-0.4337478">
													<SimplePredicate field="MonthsSinceLastTest" operator="greaterOrEqual" value="5.5"/>
												</Node>
											</Node>
											<Node score="-0.5845303">
												<SimplePredicate field="MonthsSinceLastTest" operator="lessThan" value="12.5"/>
											</Node>
										</Node>
										<Node score="-0.26060608">
											<SimplePredicate field="PC4" operator="greaterOrEqual" value="1.169303"/>
											<Node score="-0.4983051">
												<SimplePredicate field="MaritalStatus.Married" operator="greaterOrEqual" value="0.5"/>
											</Node>
										</Node>
										<Node score="-0.5052988">
											<SimplePredicate field="PC9" operator="greaterOrEqual" value="-0.76677406"/>
										</Node>
									</Node>
									<Node score="-0.5419355">
										<SimplePredicate field="PC6" operator="greaterOrEqual" value="1.1282129"/>
										<Node score="0.50163937">
											<SimplePredicate field="TBScreening.No.Presumed.TB" operator="lessThan" value="0.5"/>
										</Node>
										<Node score="-0.13928571">
											<SimplePredicate field="AgeAtTest" operator="greaterOrEqual" value="18.5"/>
											<Node score="0.13846155">
												<SimplePredicate field="PC7" operator="greaterOrEqual" value="-0.20721194"/>
												<Node score="-0.084162906">
													<SimplePredicate field="Gender.Male" operator="greaterOrEqual" value="0.5"/>
												</Node>
											</Node>
											<Node score="-0.5052632">
												<SimplePredicate field="MonthsSinceLastTest" operator="lessThan" value="6.5"/>
											</Node>
										</Node>
										<Node score="-0.06666667">
											<SimplePredicate field="MonthsSinceLastTest" operator="greaterOrEqual" value="10.5"/>
										</Node>
										<Node score="-0.2888889">
											<SimplePredicate field="AgeAtTest" operator="greaterOrEqual" value="12.5"/>
										</Node>
									</Node>
									<Node score="-0.37324417">
										<SimplePredicate field="PC3" operator="greaterOrEqual" value="-5.1969643"/>
										<Node score="0.21081083">
											<SimplePredicate field="PC7" operator="greaterOrEqual" value="2.7801332"/>
											<Node score="-0.0">
												<SimplePredicate field="EntryPoint.MTC" operator="lessThan" value="0.5"/>
												<Node score="-0.22105263">
													<SimplePredicate field="AgeAtTest" operator="greaterOrEqual" value="21.0"/>
												</Node>
											</Node>
											<Node score="-0.33333337">
												<SimplePredicate field="AgeAtTest" operator="greaterOrEqual" value="58.5"/>
											</Node>
										</Node>
										<Node score="0.23478262">
											<SimplePredicate field="MaritalStatus.Widowed" operator="greaterOrEqual" value="0.5"/>
											<Node score="-0.26666668">
												<SimplePredicate field="PC3" operator="greaterOrEqual" value="1.9037715"/>
											</Node>
										</Node>
										<Node score="-0.4987698">
											<SimplePredicate field="PC6" operator="greaterOrEqual" value="-1.2405262"/>
										</Node>
									</Node>
									<Node score="0.40000004">
										<SimplePredicate field="TBScreening.No.Presumed.TB" operator="lessThan" value="0.5"/>
									</Node>
									<Node score="-0.41052634">
										<SimplePredicate field="MonthsSinceLastTest" operator="lessThan" value="3.5"/>
									</Node>
									<Node score="-0.18400002">
										<SimplePredicate field="MonthsSinceLastTest" operator="greaterOrEqual" value="5.5"/>
									</Node>
								</Node>
							</TreeModel>
						</Segment>
						<Segment id="2">
							<True/>
							<TreeModel functionName="regression" noTrueChildStrategy="returnLastPrediction" x-mathContext="float">
								<MiningSchema>
									<MiningField name="PC2"/>
									<MiningField name="PC4"/>
									<MiningField name="PC5"/>
									<MiningField name="PC6"/>
									<MiningField name="PC7"/>
									<MiningField name="PC8"/>
									<MiningField name="PC10"/>
									<MiningField name="AgeAtTest"/>
									<MiningField name="MonthsSinceLastTest"/>
									<MiningField name="Gender.Male"/>
									<MiningField name="MaritalStatus.Married"/>
									<MiningField name="MaritalStatus.Divorced"/>
									<MiningField name="MaritalStatus.Polygamous"/>
									<MiningField name="MaritalStatus.Minor"/>
									<MiningField name="PatientDisabled.Not.Disabled"/>
									<MiningField name="EntryPoint.VCT"/>
									<MiningField name="EntryPoint.MTC"/>
									<MiningField name="TestingStrategy.VCT"/>
									<MiningField name="TestingStrategy.HB"/>
									<MiningField name="TBScreening.No.Presumed.TB"/>
								</MiningSchema>
								<Node score="-0.20204104">
									<True/>
									<Node score="-0.41789225">
										<SimplePredicate field="TestingStrategy.VCT" operator="lessThan" value="2.000001"/>
										<Node score="-0.0">
											<SimplePredicate field="MaritalStatus.Divorced" operator="greaterOrEqual" value="0.5"/>
											<Node score="-0.24542949">
												<SimplePredicate field="EntryPoint.MTC" operator="lessThan" value="0.5"/>
												<Node score="-0.29634964">
													<SimplePredicate field="PC5" operator="greaterOrEqual" value="0.59795344"/>
													<Node score="0.13303041">
														<SimplePredicate field="AgeAtTest" operator="greaterOrEqual" value="37.5"/>
													</Node>
													<Node score="-0.044155728">
														<SimplePredicate field="PC10" operator="greaterOrEqual" value="0.028343268"/>
													</Node>
												</Node>
												<Node score="0.2896357">
													<SimplePredicate field="AgeAtTest" operator="greaterOrEqual" value="22.5"/>
													<Node score="-0.019048585">
														<SimplePredicate field="Gender.Male" operator="greaterOrEqual" value="0.5"/>
													</Node>
												</Node>
											</Node>
											<Node score="0.36378396">
												<SimplePredicate field="PC7" operator="greaterOrEqual" value="-0.9232638"/>
											</Node>
										</Node>
										<Node score="-0.40657172">
											<SimplePredicate field="TBScreening.No.Presumed.TB" operator="lessThan" value="0.5"/>
											<Node score="-0.20874111">
												<SimplePredicate field="MonthsSinceLastTest" operator="greaterOrEqual" value="13.5"/>
												<Node score="-0.2771423">
													<SimplePredicate field="AgeAtTest" operator="greaterOrEqual" value="61.0"/>
													<Node score="-0.041297533">
														<SimplePredicate field="MonthsSinceLastTest" operator="lessThan" value="26.0"/>
													</Node>
												</Node>
												<Node score="0.24984328">
													<SimplePredicate field="AgeAtTest" operator="greaterOrEqual" value="21.5"/>
												</Node>
											</Node>
											<Node score="-0.16482325">
												<SimplePredicate field="MaritalStatus.Married" operator="greaterOrEqual" value="0.5"/>
												<Node score="0.14886981">
													<SimplePredicate field="PatientDisabled.Not.Disabled" operator="greaterOrEqual" value="0.5"/>
												</Node>
											</Node>
											<Node score="-0.14825384">
												<SimplePredicate field="PC7" operator="greaterOrEqual" value="0.61708665"/>
											</Node>
										</Node>
										<Node score="-0.41984072">
											<SimplePredicate field="TestingStrategy.HB" operator="lessThan" value="0.5"/>
											<Node score="-0.42068347">
												<SimplePredicate field="MaritalStatus.Minor" operator="lessThan" value="0.5"/>
												<Node score="-0.32107234">
													<SimplePredicate field="MonthsSinceLastTest" operator="greaterOrEqual" value="5.5"/>
												</Node>
											</Node>
											<Node score="-0.4504166">
												<SimplePredicate field="MonthsSinceLastTest" operator="lessThan" value="12.5"/>
											</Node>
										</Node>
										<Node score="-0.3119536">
											<SimplePredicate field="PC4" operator="greaterOrEqual" value="-0.64776844"/>
											<Node score="-0.004056432">
												<SimplePredicate field="AgeAtTest" operator="greaterOrEqual" value="60.5"/>
											</Node>
										</Node>
										<Node score="0.092462495">
											<SimplePredicate field="MaritalStatus.Polygamous" operator="greaterOrEqual" value="0.5"/>
										</Node>
									</Node>
									<Node score="-0.4210197">
										<SimplePredicate field="PC6" operator="greaterOrEqual" value="1.1282129"/>
										<Node score="0.38564464">
											<SimplePredicate field="TBScreening.No.Presumed.TB" operator="lessThan" value="0.5"/>
										</Node>
										<Node score="-0.3995818">
											<SimplePredicate field="AgeAtTest" operator="greaterOrEqual" value="18.5"/>
											<Node score="-0.039695367">
												<SimplePredicate field="PC7" operator="greaterOrEqual" value="-0.6897136"/>
												<Node score="0.20356427">
													<SimplePredicate field="MaritalStatus.Married" operator="lessThan" value="2.000001"/>
												</Node>
											</Node>
										</Node>
										<Node score="-0.055593953">
											<SimplePredicate field="MonthsSinceLastTest" operator="greaterOrEqual" value="10.5"/>
										</Node>
										<Node score="-0.2194171">
											<SimplePredicate field="AgeAtTest" operator="greaterOrEqual" value="12.5"/>
										</Node>
									</Node>
									<Node score="0.015287171">
										<SimplePredicate field="TBScreening.No.Presumed.TB" operator="lessThan" value="0.5"/>
										<Node score="0.4235519">
											<SimplePredicate field="PC8" operator="greaterOrEqual" value="-0.56333923"/>
										</Node>
									</Node>
									<Node score="-0.47562853">
										<SimplePredicate field="PC8" operator="greaterOrEqual" value="0.5227505"/>
										<Node score="0.30910167">
											<SimplePredicate field="EntryPoint.VCT" operator="greaterOrEqual" value="0.5"/>
										</Node>
										<Node score="-0.35966134">
											<SimplePredicate field="AgeAtTest" operator="greaterOrEqual" value="15.5"/>
										</Node>
									</Node>
									<Node score="-0.43534213">
										<SimplePredicate field="PC2" operator="greaterOrEqual" value="3.0922453"/>
										<Node score="-0.001474871">
											<SimplePredicate field="AgeAtTest" operator="greaterOrEqual" value="46.5"/>
										</Node>
									</Node>
									<Node score="0.23250769">
										<SimplePredicate field="MaritalStatus.Divorced" operator="greaterOrEqual" value="0.5"/>
									</Node>
								</Node>
							</TreeModel>
						</Segment>
						<Segment id="3">
							<True/>
							<TreeModel functionName="regression" noTrueChildStrategy="returnLastPrediction" x-mathContext="float">
								<MiningSchema>
									<MiningField name="PC2"/>
									<MiningField name="PC3"/>
									<MiningField name="PC4"/>
									<MiningField name="PC5"/>
									<MiningField name="PC6"/>
									<MiningField name="PC7"/>
									<MiningField name="PC8"/>
									<MiningField name="PC9"/>
									<MiningField name="PC10"/>
									<MiningField name="AgeAtTest"/>
									<MiningField name="MonthsSinceLastTest"/>
									<MiningField name="Gender.Male"/>
									<MiningField name="MaritalStatus.Married"/>
									<MiningField name="MaritalStatus.Divorced"/>
									<MiningField name="MaritalStatus.Minor"/>
									<MiningField name="PatientDisabled.Not.Disabled"/>
									<MiningField name="EntryPoint.MOBILE"/>
									<MiningField name="TestingStrategy.HB"/>
									<MiningField name="TestingStrategy.MOBILE"/>
									<MiningField name="TestingStrategy.HP"/>
									<MiningField name="TBScreening.No.Presumed.TB"/>
								</MiningSchema>
								<Node score="-0.10860313">
									<True/>
									<Node score="-0.19799867">
										<SimplePredicate field="TestingStrategy.HB" operator="lessThan" value="0.5"/>
										<Node score="0.26243106">
											<SimplePredicate field="MaritalStatus.Divorced" operator="greaterOrEqual" value="0.5"/>
											<Node score="-0.054894254">
												<SimplePredicate field="PC7" operator="greaterOrEqual" value="0.70744246"/>
												<Node score="0.31661877">
													<SimplePredicate field="MonthsSinceLastTest" operator="lessThan" value="7.5"/>
												</Node>
												<Node score="-0.15181708">
													<SimplePredicate field="Gender.Male" operator="greaterOrEqual" value="0.5"/>
												</Node>
												<Node score="0.21306376">
													<SimplePredicate field="AgeAtTest" operator="greaterOrEqual" value="21.5"/>
												</Node>
											</Node>
											<Node score="-0.332085">
												<SimplePredicate field="PC2" operator="greaterOrEqual" value="-1.5952522"/>
											</Node>
											<Node score="-0.15743083">
												<SimplePredicate field="TestingStrategy.HP" operator="lessThan" value="0.5"/>
												<Node score="0.26304126">
													<SimplePredicate field="AgeAtTest" operator="greaterOrEqual" value="40.0"/>
												</Node>
											</Node>
										</Node>
										<Node score="-0.3503426">
											<SimplePredicate field="TBScreening.No.Presumed.TB" operator="lessThan" value="0.5"/>
											<Node score="0.121183895">
												<SimplePredicate field="TestingStrategy.MOBILE" operator="lessThan" value="0.5"/>
												<Node score="-0.39641452">
													<SimplePredicate field="PC3" operator="greaterOrEqual" value="0.8203607"/>
													<Node score="0.039625067">
														<SimplePredicate field="AgeAtTest" operator="greaterOrEqual" value="19.5"/>
													</Node>
												</Node>
												<Node score="-0.31243244">
													<SimplePredicate field="PC9" operator="greaterOrEqual" value="-0.8682943"/>
												</Node>
											</Node>
											<Node score="0.08172132">
												<SimplePredicate field="MonthsSinceLastTest" operator="greaterOrEqual" value="13.5"/>
												<Node score="-0.08565571">
													<SimplePredicate field="AgeAtTest" operator="greaterOrEqual" value="39.5"/>
												</Node>
											</Node>
											<Node score="0.04163447">
												<SimplePredicate field="MaritalStatus.Married" operator="greaterOrEqual" value="0.5"/>
											</Node>
										</Node>
										<Node score="-0.36488923">
											<SimplePredicate field="MaritalStatus.Minor" operator="lessThan" value="0.5"/>
											<Node score="-0.1752294">
												<SimplePredicate field="AgeAtTest" operator="greaterOrEqual" value="27.5"/>
												<Node score="-0.31686267">
													<SimplePredicate field="PC6" operator="greaterOrEqual" value="-0.5098854"/>
												</Node>
											</Node>
											<Node score="0.014316109">
												<SimplePredicate field="MonthsSinceLastTest" operator="greaterOrEqual" value="25.0"/>
											</Node>
										</Node>
										<Node score="-0.32813367">
											<SimplePredicate field="MonthsSinceLastTest" operator="lessThan" value="12.5"/>
											<Node score="-0.39012167">
												<SimplePredicate field="PC8" operator="greaterOrEqual" value="-1.2225231"/>
											</Node>
										</Node>
										<Node score="-0.35902902">
											<SimplePredicate field="TestingStrategy.MOBILE" operator="lessThan" value="0.5"/>
										</Node>
									</Node>
									<Node score="-0.39732382">
										<SimplePredicate field="EntryPoint.MOBILE" operator="greaterOrEqual" value="0.5"/>
										<Node score="0.33845854">
											<SimplePredicate field="AgeAtTest" operator="greaterOrEqual" value="18.5"/>
											<Node score="0.105301">
												<SimplePredicate field="TBScreening.No.Presumed.TB" operator="greaterOrEqual" value="0.5"/>
												<Node score="-0.16206832">
													<SimplePredicate field="Gender.Male" operator="greaterOrEqual" value="0.5"/>
													<Node score="0.06701146">
														<SimplePredicate field="AgeAtTest" operator="greaterOrEqual" value="36.5"/>
													</Node>
												</Node>
												<Node score="-0.14861783">
													<SimplePredicate field="PC4" operator="greaterOrEqual" value="-0.17274167"/>
												</Node>
											</Node>
										</Node>
										<Node score="-0.108017795">
											<SimplePredicate field="MaritalStatus.Married" operator="greaterOrEqual" value="0.5"/>
										</Node>
									</Node>
									<Node score="-0.3125839">
										<SimplePredicate field="TBScreening.No.Presumed.TB" operator="greaterOrEqual" value="0.5"/>
										<Node score="-0.29424164">
											<SimplePredicate field="MaritalStatus.Minor" operator="lessThan" value="0.5"/>
											<Node score="0.40948424">
												<SimplePredicate field="PatientDisabled.Not.Disabled" operator="greaterOrEqual" value="0.5"/>
												<Node score="-0.012579205">
													<SimplePredicate field="PC8" operator="greaterOrEqual" value="-0.15323749"/>
												</Node>
											</Node>
											<Node score="-0.0059928377">
												<SimplePredicate field="MaritalStatus.Married" operator="lessThan" value="0.5"/>
											</Node>
										</Node>
										<Node score="0.42553985">
											<SimplePredicate field="AgeAtTest" operator="greaterOrEqual" value="58.5"/>
											<Node score="-0.21260497">
												<SimplePredicate field="MonthsSinceLastTest" operator="lessThan" value="15.5"/>
											</Node>
										</Node>
										<Node score="-0.38677162">
											<SimplePredicate field="Gender.Male" operator="greaterOrEqual" value="0.5"/>
										</Node>
									</Node>
									<Node score="0.1294486">
										<SimplePredicate field="PC7" operator="greaterOrEqual" value="-0.69650245"/>
										<Node score="0.3381163">
											<SimplePredicate field="AgeAtTest" operator="greaterOrEqual" value="23.5"/>
											<Node score="-0.052750703">
												<SimplePredicate field="PC5" operator="greaterOrEqual" value="-0.09334515"/>
											</Node>
										</Node>
										<Node score="-0.2770702">
											<SimplePredicate field="PC10" operator="greaterOrEqual" value="-0.17641869"/>
										</Node>
									</Node>
									<Node score="-0.18771505">
										<SimplePredicate field="PC6" operator="greaterOrEqual" value="-1.7461956"/>
										<Node score="-0.3241862">
											<SimplePredicate field="PC10" operator="greaterOrEqual" value="-0.020330409"/>
										</Node>
									</Node>
									<Node score="0.19575909">
										<SimplePredicate field="AgeAtTest" operator="greaterOrEqual" value="29.5"/>
									</Node>
								</Node>
							</TreeModel>
						</Segment>
						<Segment id="4">
							<True/>
							<TreeModel functionName="regression" noTrueChildStrategy="returnLastPrediction" x-mathContext="float">
								<MiningSchema>
									<MiningField name="PC1"/>
									<MiningField name="PC4"/>
									<MiningField name="PC5"/>
									<MiningField name="PC6"/>
									<MiningField name="PC7"/>
									<MiningField name="PC9"/>
									<MiningField name="PC10"/>
									<MiningField name="AgeAtTest"/>
									<MiningField name="MonthsSinceLastTest"/>
									<MiningField name="Gender.Male"/>
									<MiningField name="MaritalStatus.Married"/>
									<MiningField name="MaritalStatus.Divorced"/>
									<MiningField name="MaritalStatus.Widowed"/>
									<MiningField name="EntryPoint.VCT"/>
									<MiningField name="TestingStrategy.HB"/>
									<MiningField name="TestingStrategy.MOBILE"/>
									<MiningField name="TBScreening.No.Presumed.TB"/>
									<MiningField name="ClientSelfTested.No"/>
								</MiningSchema>
								<Node score="-0.27868912">
									<True/>
									<Node score="-0.362169">
										<SimplePredicate field="TestingStrategy.HB" operator="lessThan" value="0.5"/>
										<Node score="-0.2531965">
											<SimplePredicate field="MaritalStatus.Divorced" operator="greaterOrEqual" value="0.5"/>
											<Node score="-0.19170697">
												<SimplePredicate field="AgeAtTest" operator="greaterOrEqual" value="20.5"/>
												<Node score="0.28569987">
													<SimplePredicate field="PC7" operator="greaterOrEqual" value="1.0893024"/>
													<Node score="0.16609693">
														<SimplePredicate field="EntryPoint.VCT" operator="greaterOrEqual" value="0.5"/>
														<Node score="-0.029676056">
															<SimplePredicate field="Gender.Male" operator="greaterOrEqual" value="0.5"/>
														</Node>
													</Node>
												</Node>
												<Node score="0.19818541">
													<SimplePredicate field="AgeAtTest" operator="greaterOrEqual" value="40.5"/>
												</Node>
												<Node score="0.004279682">
													<SimplePredicate field="PC6" operator="greaterOrEqual" value="0.5131275"/>
												</Node>
											</Node>
										</Node>
										<Node score="-0.3039193">
											<SimplePredicate field="TBScreening.No.Presumed.TB" operator="lessThan" value="0.5"/>
											<Node score="-0.11955901">
												<SimplePredicate field="TestingStrategy.MOBILE" operator="lessThan" value="0.5"/>
												<Node score="-0.34941867">
													<SimplePredicate field="AgeAtTest" operator="greaterOrEqual" value="53.5"/>
													<Node score="-0.093739524">
														<SimplePredicate field="Gender.Male" operator="greaterOrEqual" value="0.5"/>
													</Node>
												</Node>
												<Node score="0.099065855">
													<SimplePredicate field="AgeAtTest" operator="greaterOrEqual" value="32.5"/>
												</Node>
											</Node>
											<Node score="0.06737116">
												<SimplePredicate field="MonthsSinceLastTest" operator="greaterOrEqual" value="13.5"/>
												<Node score="-0.071327694">
													<SimplePredicate field="AgeAtTest" operator="greaterOrEqual" value="39.5"/>
												</Node>
											</Node>
											<Node score="0.03375307">
												<SimplePredicate field="MaritalStatus.Married" operator="greaterOrEqual" value="0.5"/>
											</Node>
										</Node>
										<Node score="-0.34305197">
											<SimplePredicate field="TestingStrategy.MOBILE" operator="lessThan" value="0.5"/>
											<Node score="-0.30609953">
												<SimplePredicate field="AgeAtTest" operator="greaterOrEqual" value="25.5"/>
												<Node score="-0.2366818">
													<SimplePredicate field="MaritalStatus.Married" operator="lessThan" value="2.000001"/>
												</Node>
											</Node>
											<Node score="-0.26272845">
												<SimplePredicate field="PC10" operator="greaterOrEqual" value="1.284145"/>
											</Node>
										</Node>
										<Node score="-0.3383059">
											<SimplePredicate field="MonthsSinceLastTest" operator="greaterOrEqual" value="12.5"/>
											<Node score="0.14593774">
												<SimplePredicate field="PC5" operator="greaterOrEqual" value="1.71908"/>
											</Node>
										</Node>
										<Node score="0.049163725">
											<SimplePredicate field="MaritalStatus.Widowed" operator="greaterOrEqual" value="0.5"/>
										</Node>
									</Node>
									<Node score="-0.31362566">
										<SimplePredicate field="PC6" operator="greaterOrEqual" value="1.1282129"/>
										<Node score="-0.16584711">
											<SimplePredicate field="AgeAtTest" operator="greaterOrEqual" value="16.5"/>
											<Node score="0.34163073">
												<SimplePredicate field="TBScreening.No.Presumed.TB" operator="lessThan" value="0.5"/>
												<Node score="0.29012078">
													<SimplePredicate field="MonthsSinceLastTest" operator="greaterOrEqual" value="8.5"/>
													<Node score="-0.11140324">
														<SimplePredicate field="MonthsSinceLastTest" operator="lessThan" value="11.5"/>
													</Node>
												</Node>
											</Node>
											<Node score="-0.03832219">
												<SimplePredicate field="PC7" operator="greaterOrEqual" value="-0.20721194"/>
												<Node score="0.1341665">
													<SimplePredicate field="AgeAtTest" operator="greaterOrEqual" value="32.5"/>
												</Node>
											</Node>
											<Node score="0.33675572">
												<SimplePredicate field="ClientSelfTested.No" operator="lessThan" value="0.5"/>
											</Node>
										</Node>
									</Node>
									<Node score="-0.2493838">
										<SimplePredicate field="AgeAtTest" operator="greaterOrEqual" value="15.5"/>
										<Node score="-0.26316422">
											<SimplePredicate field="Gender.Male" operator="greaterOrEqual" value="0.5"/>
											<Node score="0.018856108">
												<SimplePredicate field="PC7" operator="greaterOrEqual" value="2.7801332"/>
												<Node score="0.46331123">
													<SimplePredicate field="MonthsSinceLastTest" operator="lessThan" value="1.0E-6"/>
												</Node>
											</Node>
											<Node score="0.28935373">
												<SimplePredicate field="TBScreening.No.Presumed.TB" operator="lessThan" value="0.5"/>
											</Node>
										</Node>
										<Node score="-0.09116796">
											<SimplePredicate field="PC5" operator="greaterOrEqual" value="-0.45238113"/>
											<Node score="0.1561401">
												<SimplePredicate field="MaritalStatus.Married" operator="lessThan" value="0.5"/>
											</Node>
										</Node>
										<Node score="0.07235243">
											<SimplePredicate field="PC4" operator="greaterOrEqual" value="2.0065975"/>
										</Node>
									</Node>
									<Node score="-0.35099238">
										<SimplePredicate field="PC7" operator="greaterOrEqual" value="-1.351701"/>
										<Node score="-0.083305135">
											<SimplePredicate field="PC4" operator="greaterOrEqual" value="3.052326"/>
										</Node>
										<Node score="-0.12737703">
											<SimplePredicate field="PC9" operator="greaterOrEqual" value="1.3883514"/>
										</Node>
									</Node>
									<Node score="0.24772057">
										<SimplePredicate field="PC1" operator="greaterOrEqual" value="0.6413243"/>
									</Node>
								</Node>
							</TreeModel>
						</Segment>
						<Segment id="5">
							<True/>
							<TreeModel functionName="regression" noTrueChildStrategy="returnLastPrediction" x-mathContext="float">
								<MiningSchema>
									<MiningField name="PC1"/>
									<MiningField name="PC2"/>
									<MiningField name="PC3"/>
									<MiningField name="PC5"/>
									<MiningField name="PC6"/>
									<MiningField name="PC7"/>
									<MiningField name="PC8"/>
									<MiningField name="PC9"/>
									<MiningField name="PC10"/>
									<MiningField name="AgeAtTest"/>
									<MiningField name="MonthsSinceLastTest"/>
									<MiningField name="Gender.Male"/>
									<MiningField name="MaritalStatus.Married"/>
									<MiningField name="MaritalStatus.Divorced"/>
									<MiningField name="MaritalStatus.Minor"/>
									<MiningField name="EntryPoint.HB"/>
									<MiningField name="TestingStrategy.HB"/>
									<MiningField name="TestingStrategy.HP"/>
									<MiningField name="TBScreening.No.Presumed.TB"/>
									<MiningField name="ClientSelfTested.No"/>
								</MiningSchema>
								<Node score="-0.24905224">
									<True/>
									<Node score="-0.2723465">
										<SimplePredicate field="TestingStrategy.HB" operator="lessThan" value="0.5"/>
										<Node score="0.17464797">
											<SimplePredicate field="MaritalStatus.Minor" operator="lessThan" value="0.5"/>
											<Node score="0.64838874">
												<SimplePredicate field="MonthsSinceLastTest" operator="greaterOrEqual" value="6.5"/>
												<Node score="0.5364747">
													<SimplePredicate field="PC3" operator="greaterOrEqual" value="-4.482308"/>
													<Node score="-0.21270998">
														<SimplePredicate field="PC8" operator="greaterOrEqual" value="-0.9099322"/>
														<Node score="0.057686534">
															<SimplePredicate field="PC1" operator="greaterOrEqual" value="6.983368"/>
														</Node>
													</Node>
												</Node>
											</Node>
											<Node score="-0.27467912">
												<SimplePredicate field="MaritalStatus.Divorced" operator="lessThan" value="0.5"/>
												<Node score="0.27532">
													<SimplePredicate field="PC2" operator="greaterOrEqual" value="3.6135132"/>
												</Node>
												<Node score="-0.08827046">
													<SimplePredicate field="PC10" operator="greaterOrEqual" value="1.284145"/>
												</Node>
											</Node>
											<Node score="-0.008087143">
												<SimplePredicate field="PC7" operator="greaterOrEqual" value="-0.9232638"/>
												<Node score="0.21347913">
													<SimplePredicate field="PC8" operator="greaterOrEqual" value="-0.32303432"/>
												</Node>
											</Node>
											<Node score="-0.26805353">
												<SimplePredicate field="TestingStrategy.HP" operator="lessThan" value="0.5"/>
											</Node>
										</Node>
										<Node score="-0.26405525">
											<SimplePredicate field="TBScreening.No.Presumed.TB" operator="greaterOrEqual" value="0.5"/>
											<Node score="-0.1736204">
												<SimplePredicate field="MonthsSinceLastTest" operator="greaterOrEqual" value="12.5"/>
												<Node score="0.10414706">
													<SimplePredicate field="PC3" operator="greaterOrEqual" value="-2.3330526"/>
													<Node score="-0.29010075">
														<SimplePredicate field="MonthsSinceLastTest" operator="lessThan" value="66.0"/>
													</Node>
												</Node>
												<Node score="0.22824468">
													<SimplePredicate field="AgeAtTest" operator="greaterOrEqual" value="25.5"/>
												</Node>
											</Node>
											<Node score="-0.32916883">
												<SimplePredicate field="PC8" operator="greaterOrEqual" value="-1.2225231"/>
												<Node score="-9.323171E-4">
													<SimplePredicate field="EntryPoint.HB" operator="greaterOrEqual" value="0.5"/>
												</Node>
											</Node>
											<Node score="0.23651892">
												<SimplePredicate field="ClientSelfTested.No" operator="lessThan" value="0.5"/>
											</Node>
										</Node>
										<Node score="-0.3107941">
											<SimplePredicate field="PC5" operator="greaterOrEqual" value="-3.1558878"/>
											<Node score="-0.19028105">
												<SimplePredicate field="MonthsSinceLastTest" operator="greaterOrEqual" value="12.5"/>
												<Node score="0.06667124">
													<SimplePredicate field="ClientSelfTested.No" operator="lessThan" value="2.000001"/>
												</Node>
											</Node>
											<Node score="-0.23584169">
												<SimplePredicate field="PC7" operator="greaterOrEqual" value="-0.9490981"/>
											</Node>
										</Node>
										<Node score="1.249982">
											<SimplePredicate field="PC1" operator="greaterOrEqual" value="-6.654002"/>
										</Node>
										<Node score="-0.098015435">
											<SimplePredicate field="Gender.Male" operator="greaterOrEqual" value="0.5"/>
										</Node>
									</Node>
									<Node score="-0.12121258">
										<SimplePredicate field="AgeAtTest" operator="greaterOrEqual" value="15.5"/>
										<Node score="0.18830489">
											<SimplePredicate field="PC6" operator="greaterOrEqual" value="1.1282129"/>
											<Node score="0.25150117">
												<SimplePredicate field="Gender.Male" operator="greaterOrEqual" value="0.5"/>
												<Node score="-0.11133236">
													<SimplePredicate field="AgeAtTest" operator="greaterOrEqual" value="36.5"/>
													<Node score="0.23670103">
														<SimplePredicate field="PC1" operator="greaterOrEqual" value="8.372173"/>
													</Node>
												</Node>
												<Node score="-0.12932588">
													<SimplePredicate field="PC10" operator="greaterOrEqual" value="-0.37265742"/>
												</Node>
											</Node>
											<Node score="-0.32197708">
												<SimplePredicate field="MonthsSinceLastTest" operator="lessThan" value="7.5"/>
												<Node score="0.019289643">
													<SimplePredicate field="PC7" operator="greaterOrEqual" value="-0.20721194"/>
												</Node>
											</Node>
											<Node score="-0.17807192">
												<SimplePredicate field="AgeAtTest" operator="greaterOrEqual" value="45.5"/>
											</Node>
										</Node>
										<Node score="-0.15234771">
											<SimplePredicate field="MaritalStatus.Married" operator="lessThan" value="0.5"/>
											<Node score="-0.07821744">
												<SimplePredicate field="AgeAtTest" operator="greaterOrEqual" value="48.5"/>
												<Node score="-0.3001402">
													<SimplePredicate field="MonthsSinceLastTest" operator="lessThan" value="30.0"/>
												</Node>
											</Node>
											<Node score="0.17974184">
												<SimplePredicate field="PC10" operator="greaterOrEqual" value="-0.5159997"/>
											</Node>
										</Node>
										<Node score="-0.24733567">
											<SimplePredicate field="TBScreening.No.Presumed.TB" operator="greaterOrEqual" value="0.5"/>
											<Node score="-0.084908314">
												<SimplePredicate field="EntryPoint.HB" operator="lessThan" value="0.5"/>
											</Node>
										</Node>
										<Node score="0.07359605">
											<SimplePredicate field="MonthsSinceLastTest" operator="lessThan" value="48.0"/>
										</Node>
									</Node>
									<Node score="-0.2401604">
										<SimplePredicate field="PC7" operator="greaterOrEqual" value="-1.351701"/>
										<Node score="-0.32297578">
											<SimplePredicate field="AgeAtTest" operator="greaterOrEqual" value="1.5"/>
											<Node score="-0.16602851">
												<SimplePredicate field="PC10" operator="greaterOrEqual" value="1.1494697"/>
												<Node score="0.01899566">
													<SimplePredicate field="AgeAtTest" operator="greaterOrEqual" value="12.0"/>
												</Node>
											</Node>
											<Node score="-0.10507372">
												<SimplePredicate field="PC9" operator="greaterOrEqual" value="1.6265069"/>
											</Node>
										</Node>
										<Node score="0.20454067">
											<SimplePredicate field="PC5" operator="greaterOrEqual" value="-0.6074087"/>
										</Node>
									</Node>
									<Node score="0.19643097">
										<SimplePredicate field="PC1" operator="greaterOrEqual" value="0.6413243"/>
									</Node>
								</Node>
							</TreeModel>
						</Segment>
						<Segment id="6">
							<True/>
							<TreeModel functionName="regression" noTrueChildStrategy="returnLastPrediction" x-mathContext="float">
								<MiningSchema>
									<MiningField name="PC1"/>
									<MiningField name="PC2"/>
									<MiningField name="PC3"/>
									<MiningField name="PC4"/>
									<MiningField name="PC5"/>
									<MiningField name="PC7"/>
									<MiningField name="PC8"/>
									<MiningField name="PC9"/>
									<MiningField name="PC10"/>
									<MiningField name="AgeAtTest"/>
									<MiningField name="MonthsSinceLastTest"/>
									<MiningField name="Gender.Male"/>
									<MiningField name="MaritalStatus.Married"/>
									<MiningField name="MaritalStatus.Polygamous"/>
									<MiningField name="MaritalStatus.Widowed"/>
									<MiningField name="MaritalStatus.Minor"/>
									<MiningField name="EntryPoint.MTC"/>
									<MiningField name="TestingStrategy.VCT"/>
									<MiningField name="TestingStrategy.HB"/>
									<MiningField name="TBScreening.No.Presumed.TB"/>
									<MiningField name="ClientSelfTested.No"/>
								</MiningSchema>
								<Node score="-0.2637217">
									<True/>
									<Node score="-0.2425104">
										<SimplePredicate field="TestingStrategy.HB" operator="lessThan" value="0.5"/>
										<Node score="0.59730536">
											<SimplePredicate field="MaritalStatus.Minor" operator="lessThan" value="0.5"/>
											<Node score="0.5245692">
												<SimplePredicate field="AgeAtTest" operator="greaterOrEqual" value="24.5"/>
												<Node score="-0.30725738">
													<SimplePredicate field="AgeAtTest" operator="greaterOrEqual" value="52.5"/>
													<Node score="-0.22347389">
														<SimplePredicate field="PC2" operator="greaterOrEqual" value="0.9443989"/>
														<Node score="0.35218528">
															<SimplePredicate field="AgeAtTest" operator="greaterOrEqual" value="59.5"/>
														</Node>
													</Node>
													<Node score="-0.11055488">
														<SimplePredicate field="MonthsSinceLastTest" operator="greaterOrEqual" value="21.0"/>
													</Node>
												</Node>
												<Node score="-0.13754232">
													<SimplePredicate field="MaritalStatus.Widowed" operator="lessThan" value="0.5"/>
													<Node score="0.15015645">
														<SimplePredicate field="TBScreening.No.Presumed.TB" operator="lessThan" value="0.5"/>
													</Node>
												</Node>
												<Node score="0.027143361">
													<SimplePredicate field="AgeAtTest" operator="greaterOrEqual" value="36.5"/>
												</Node>
											</Node>
											<Node score="0.5167973">
												<SimplePredicate field="PC2" operator="greaterOrEqual" value="-1.6473145"/>
												<Node score="-0.033058356">
													<SimplePredicate field="PC8" operator="greaterOrEqual" value="-1.1363277"/>
													<Node score="-0.30147362">
														<SimplePredicate field="MaritalStatus.Polygamous" operator="lessThan" value="0.5"/>
													</Node>
												</Node>
											</Node>
											<Node score="-0.14198913">
												<SimplePredicate field="PC3" operator="greaterOrEqual" value="-3.5752773"/>
												<Node score="-0.309958">
													<SimplePredicate field="Gender.Male" operator="greaterOrEqual" value="0.5"/>
												</Node>
											</Node>
											<Node score="-0.0829332">
												<SimplePredicate field="AgeAtTest" operator="greaterOrEqual" value="15.5"/>
											</Node>
										</Node>
										<Node score="-0.23241733">
											<SimplePredicate field="TBScreening.No.Presumed.TB" operator="greaterOrEqual" value="0.5"/>
											<Node score="-0.28282052">
												<SimplePredicate field="MonthsSinceLastTest" operator="greaterOrEqual" value="12.5"/>
												<Node score="-0.13660683">
													<SimplePredicate field="PC3" operator="greaterOrEqual" value="-2.3330526"/>
													<Node score="-0.2765628">
														<SimplePredicate field="MonthsSinceLastTest" operator="lessThan" value="34.5"/>
													</Node>
												</Node>
												<Node score="0.11777787">
													<SimplePredicate field="ClientSelfTested.No" operator="greaterOrEqual" value="0.5"/>
												</Node>
											</Node>
											<Node score="-0.3174777">
												<SimplePredicate field="PC8" operator="greaterOrEqual" value="-1.2225231"/>
												<Node score="-0.27463022">
													<SimplePredicate field="PC4" operator="greaterOrEqual" value="-0.37968606"/>
												</Node>
											</Node>
											<Node score="0.14987496">
												<SimplePredicate field="ClientSelfTested.No" operator="lessThan" value="0.5"/>
											</Node>
										</Node>
										<Node score="-0.28379452">
											<SimplePredicate field="PC5" operator="greaterOrEqual" value="-3.1558878"/>
											<Node score="-0.2017102">
												<SimplePredicate field="PC7" operator="greaterOrEqual" value="-0.9490981"/>
												<Node score="0.093026675">
													<SimplePredicate field="PC5" operator="greaterOrEqual" value="1.9872816"/>
												</Node>
											</Node>
											<Node score="0.021882884">
												<SimplePredicate field="EntryPoint.MTC" operator="greaterOrEqual" value="0.5"/>
											</Node>
										</Node>
										<Node score="0.55847764">
											<SimplePredicate field="PC1" operator="greaterOrEqual" value="-6.654002"/>
										</Node>
										<Node score="-0.08069681">
											<SimplePredicate field="Gender.Male" operator="greaterOrEqual" value="0.5"/>
										</Node>
									</Node>
									<Node score="-0.021145953">
										<SimplePredicate field="AgeAtTest" operator="greaterOrEqual" value="15.5"/>
										<Node score="-0.2441441">
											<SimplePredicate field="Gender.Male" operator="greaterOrEqual" value="0.5"/>
											<Node score="0.006506295">
												<SimplePredicate field="PC1" operator="greaterOrEqual" value="4.6263123"/>
												<Node score="0.06823075">
													<SimplePredicate field="AgeAtTest" operator="greaterOrEqual" value="32.5"/>
													<Node score="-0.18678604">
														<SimplePredicate field="TestingStrategy.VCT" operator="lessThan" value="1.0E-6"/>
													</Node>
												</Node>
												<Node score="-0.19486514">
													<SimplePredicate field="AgeAtTest" operator="greaterOrEqual" value="27.5"/>
												</Node>
											</Node>
											<Node score="-0.1238026">
												<SimplePredicate field="PC4" operator="greaterOrEqual" value="0.12155819"/>
												<Node score="0.09281296">
													<SimplePredicate field="MonthsSinceLastTest" operator="lessThan" value="2.0"/>
												</Node>
											</Node>
											<Node score="0.14301208">
												<SimplePredicate field="TBScreening.No.Presumed.TB" operator="lessThan" value="0.5"/>
											</Node>
										</Node>
										<Node score="-0.27547646">
											<SimplePredicate field="PC3" operator="greaterOrEqual" value="3.0033326"/>
											<Node score="-0.14125402">
												<SimplePredicate field="MaritalStatus.Polygamous" operator="lessThan" value="0.5"/>
												<Node score="0.17093194">
													<SimplePredicate field="MonthsSinceLastTest" operator="greaterOrEqual" value="11.5"/>
												</Node>
											</Node>
											<Node score="0.0050929976">
												<SimplePredicate field="MonthsSinceLastTest" operator="greaterOrEqual" value="16.5"/>
											</Node>
										</Node>
										<Node score="0.2778612">
											<SimplePredicate field="TBScreening.No.Presumed.TB" operator="lessThan" value="0.5"/>
										</Node>
										<Node score="0.12569909">
											<SimplePredicate field="MaritalStatus.Married" operator="lessThan" value="0.5"/>
										</Node>
									</Node>
									<Node score="-0.27819625">
										<SimplePredicate field="PC10" operator="greaterOrEqual" value="0.44529384"/>
										<Node score="0.16269976">
											<SimplePredicate field="PC9" operator="greaterOrEqual" value="0.3538953"/>
										</Node>
										<Node score="0.10971298">
											<SimplePredicate field="Gender.Male" operator="greaterOrEqual" value="0.5"/>
											<Node score="-0.13699462">
												<SimplePredicate field="AgeAtTest" operator="greaterOrEqual" value="5.5"/>
											</Node>
										</Node>
										<Node score="-0.05894833">
											<SimplePredicate field="AgeAtTest" operator="greaterOrEqual" value="13.5"/>
										</Node>
									</Node>
									<Node score="-0.2974446">
										<SimplePredicate field="AgeAtTest" operator="greaterOrEqual" value="2.5"/>
										<Node score="-0.06199985">
											<SimplePredicate field="PC9" operator="greaterOrEqual" value="1.3883514"/>
										</Node>
										<Node score="-0.08705546">
											<SimplePredicate field="PC7" operator="greaterOrEqual" value="2.7801332"/>
										</Node>
									</Node>
									<Node score="-0.108440965">
										<SimplePredicate field="PC1" operator="greaterOrEqual" value="-0.61297905"/>
										<Node score="0.2695749">
											<SimplePredicate field="Gender.Male" operator="greaterOrEqual" value="0.5"/>
										</Node>
									</Node>
								</Node>
							</TreeModel>
						</Segment>
						<Segment id="7">
							<True/>
							<TreeModel functionName="regression" noTrueChildStrategy="returnLastPrediction" x-mathContext="float">
								<MiningSchema>
									<MiningField name="PC1"/>
									<MiningField name="PC2"/>
									<MiningField name="PC3"/>
									<MiningField name="PC5"/>
									<MiningField name="PC6"/>
									<MiningField name="PC7"/>
									<MiningField name="PC9"/>
									<MiningField name="PC10"/>
									<MiningField name="AgeAtTest"/>
									<MiningField name="MonthsSinceLastTest"/>
									<MiningField name="Gender.Male"/>
									<MiningField name="MaritalStatus.Married"/>
									<MiningField name="MaritalStatus.Divorced"/>
									<MiningField name="MaritalStatus.Minor"/>
									<MiningField name="EntryPoint.VCT"/>
									<MiningField name="EntryPoint.OPD"/>
									<MiningField name="EntryPoint.MTC"/>
									<MiningField name="EntryPoint.MOBILE"/>
									<MiningField name="TestingStrategy.HB"/>
									<MiningField name="TBScreening.No.Presumed.TB"/>
								</MiningSchema>
								<Node score="-0.19788767">
									<True/>
									<Node score="-0.2258089">
										<SimplePredicate field="TestingStrategy.HB" operator="lessThan" value="0.5"/>
										<Node score="-0.31295422">
											<SimplePredicate field="MaritalStatus.Minor" operator="lessThan" value="0.5"/>
											<Node score="0.051825006">
												<SimplePredicate field="AgeAtTest" operator="greaterOrEqual" value="20.5"/>
												<Node score="-0.198092">
													<SimplePredicate field="MonthsSinceLastTest" operator="greaterOrEqual" value="21.5"/>
													<Node score="-0.20512933">
														<SimplePredicate field="PC6" operator="greaterOrEqual" value="0.5131275"/>
														<Node score="0.11417667">
															<SimplePredicate field="PC6" operator="greaterOrEqual" value="1.8029051"/>
														</Node>
													</Node>
													<Node score="0.39625064">
														<SimplePredicate field="EntryPoint.VCT" operator="lessThan" value="0.5"/>
													</Node>
												</Node>
												<Node score="0.51346284">
													<SimplePredicate field="PC2" operator="greaterOrEqual" value="3.6135132"/>
													<Node score="-0.20345967">
														<SimplePredicate field="PC2" operator="greaterOrEqual" value="4.4413185"/>
													</Node>
												</Node>
												<Node score="-0.15485102">
													<SimplePredicate field="MaritalStatus.Divorced" operator="lessThan" value="0.5"/>
												</Node>
											</Node>
											<Node score="0.08628554">
												<SimplePredicate field="PC10" operator="greaterOrEqual" value="0.9477834"/>
												<Node score="0.014041876">
													<SimplePredicate field="EntryPoint.MOBILE" operator="lessThan" value="0.5"/>
													<Node score="-0.2426083">
														<SimplePredicate field="AgeAtTest" operator="greaterOrEqual" value="15.5"/>
													</Node>
												</Node>
												<Node score="0.3399861">
													<SimplePredicate field="MonthsSinceLastTest" operator="lessThan" value="4.5"/>
												</Node>
											</Node>
											<Node score="-0.24960826">
												<SimplePredicate field="MonthsSinceLastTest" operator="lessThan" value="11.5"/>
												<Node score="-0.058014218">
													<SimplePredicate field="PC7" operator="greaterOrEqual" value="1.1954415"/>
												</Node>
											</Node>
											<Node score="-0.13060799">
												<SimplePredicate field="EntryPoint.MTC" operator="greaterOrEqual" value="0.5"/>
											</Node>
										</Node>
										<Node score="-0.30601746">
											<SimplePredicate field="TBScreening.No.Presumed.TB" operator="greaterOrEqual" value="0.5"/>
											<Node score="-0.20829144">
												<SimplePredicate field="AgeAtTest" operator="greaterOrEqual" value="25.5"/>
												<Node score="-0.29417503">
													<SimplePredicate field="PC5" operator="greaterOrEqual" value="1.7046566"/>
													<Node score="-0.043382287">
														<SimplePredicate field="MonthsSinceLastTest" operator="greaterOrEqual" value="12.5"/>
													</Node>
												</Node>
												<Node score="-1.440673E-4">
													<SimplePredicate field="MonthsSinceLastTest" operator="lessThan" value="2.5"/>
												</Node>
											</Node>
											<Node score="0.03533163">
												<SimplePredicate field="PC9" operator="greaterOrEqual" value="1.665876"/>
												<Node score="-0.20401315">
													<SimplePredicate field="AgeAtTest" operator="greaterOrEqual" value="15.5"/>
												</Node>
											</Node>
											<Node score="-0.24543877">
												<SimplePredicate field="MonthsSinceLastTest" operator="greaterOrEqual" value="12.5"/>
											</Node>
										</Node>
										<Node score="-0.2592332">
											<SimplePredicate field="PC5" operator="greaterOrEqual" value="-3.1558878"/>
											<Node score="0.107804306">
												<SimplePredicate field="MonthsSinceLastTest" operator="greaterOrEqual" value="12.5"/>
												<Node score="-0.13407928">
													<SimplePredicate field="PC10" operator="greaterOrEqual" value="0.48768398"/>
												</Node>
											</Node>
											<Node score="-0.16835564">
												<SimplePredicate field="PC7" operator="greaterOrEqual" value="-0.9490981"/>
											</Node>
										</Node>
										<Node score="0.40474916">
											<SimplePredicate field="PC1" operator="greaterOrEqual" value="-6.654002"/>
										</Node>
										<Node score="-0.06328569">
											<SimplePredicate field="AgeAtTest" operator="greaterOrEqual" value="33.0"/>
										</Node>
									</Node>
									<Node score="0.02126349">
										<SimplePredicate field="AgeAtTest" operator="greaterOrEqual" value="15.5"/>
										<Node score="-0.19293723">
											<SimplePredicate field="PC3" operator="greaterOrEqual" value="2.753821"/>
											<Node score="-0.07259405">
												<SimplePredicate field="MaritalStatus.Married" operator="lessThan" value="2.000001"/>
												<Node score="-0.0186668">
													<SimplePredicate field="MonthsSinceLastTest" operator="greaterOrEqual" value="11.5"/>
													<Node score="0.24916856">
														<SimplePredicate field="PC1" operator="greaterOrEqual" value="-4.846176"/>
													</Node>
												</Node>
												<Node score="-0.30966398">
													<SimplePredicate field="MonthsSinceLastTest" operator="greaterOrEqual" value="1.5"/>
												</Node>
											</Node>
											<Node score="0.20195891">
												<SimplePredicate field="EntryPoint.OPD" operator="greaterOrEqual" value="0.5"/>
											</Node>
											<Node score="-0.3243386">
												<SimplePredicate field="Gender.Male" operator="greaterOrEqual" value="0.5"/>
											</Node>
										</Node>
										<Node score="0.31580192">
											<SimplePredicate field="PC2" operator="greaterOrEqual" value="3.0383801"/>
											<Node score="-0.16909234">
												<SimplePredicate field="PC1" operator="greaterOrEqual" value="-6.4542665"/>
												<Node score="0.16709338">
													<SimplePredicate field="AgeAtTest" operator="greaterOrEqual" value="60.5"/>
												</Node>
											</Node>
											<Node score="0.02201272">
												<SimplePredicate field="Gender.Male" operator="greaterOrEqual" value="0.5"/>
											</Node>
										</Node>
										<Node score="-0.08637135">
											<SimplePredicate field="PC5" operator="greaterOrEqual" value="1.7373307"/>
											<Node score="0.3168565">
												<SimplePredicate field="MonthsSinceLastTest" operator="greaterOrEqual" value="54.0"/>
											</Node>
										</Node>
										<Node score="0.41007823">
											<SimplePredicate field="PC2" operator="greaterOrEqual" value="2.8655267"/>
										</Node>
									</Node>
									<Node score="-0.200515">
										<SimplePredicate field="PC7" operator="greaterOrEqual" value="-1.351701"/>
										<Node score="-0.2368568">
											<SimplePredicate field="PC10" operator="greaterOrEqual" value="1.1494697"/>
											<Node score="0.21749203">
												<SimplePredicate field="MaritalStatus.Married" operator="greaterOrEqual" value="0.5"/>
												<Node score="-0.1984074">
													<SimplePredicate field="AgeAtTest" operator="greaterOrEqual" value="7.5"/>
												</Node>
											</Node>
											<Node score="0.0733993">
												<SimplePredicate field="AgeAtTest" operator="greaterOrEqual" value="9.5"/>
											</Node>
										</Node>
										<Node score="-0.27059612">
											<SimplePredicate field="AgeAtTest" operator="greaterOrEqual" value="1.5"/>
											<Node score="-0.07227554">
												<SimplePredicate field="PC9" operator="greaterOrEqual" value="1.6265069"/>
											</Node>
										</Node>
										<Node score="0.1379749">
											<SimplePredicate field="PC5" operator="greaterOrEqual" value="-0.6074087"/>
										</Node>
									</Node>
									<Node score="0.1654557">
										<SimplePredicate field="PC1" operator="greaterOrEqual" value="0.6413243"/>
									</Node>
								</Node>
							</TreeModel>
						</Segment>
						<Segment id="8">
							<True/>
							<TreeModel functionName="regression" noTrueChildStrategy="returnLastPrediction" x-mathContext="float">
								<MiningSchema>
									<MiningField name="PC1"/>
									<MiningField name="PC2"/>
									<MiningField name="PC3"/>
									<MiningField name="PC5"/>
									<MiningField name="PC6"/>
									<MiningField name="PC7"/>
									<MiningField name="AgeAtTest"/>
									<MiningField name="MonthsSinceLastTest"/>
									<MiningField name="Gender.Male"/>
									<MiningField name="MaritalStatus.Married"/>
									<MiningField name="MaritalStatus.Polygamous"/>
									<MiningField name="MaritalStatus.Minor"/>
									<MiningField name="EntryPoint.VCT"/>
									<MiningField name="EntryPoint.OPD"/>
									<MiningField name="EntryPoint.Other"/>
									<MiningField name="EntryPoint.PEDS"/>
									<MiningField name="TestingStrategy.HB"/>
									<MiningField name="TestingStrategy.MOBILE"/>
									<MiningField name="TBScreening.No.Presumed.TB"/>
								</MiningSchema>
								<Node score="-0.18417285">
									<True/>
									<Node score="0.23162782">
										<SimplePredicate field="TestingStrategy.HB" operator="lessThan" value="0.5"/>
										<Node score="-0.21066062">
											<SimplePredicate field="TestingStrategy.MOBILE" operator="lessThan" value="0.5"/>
											<Node score="0.20624016">
												<SimplePredicate field="TBScreening.No.Presumed.TB" operator="lessThan" value="0.5"/>
												<Node score="-0.24534018">
													<SimplePredicate field="PC1" operator="greaterOrEqual" value="0.11183393"/>
													<Node score="0.2261679">
														<SimplePredicate field="AgeAtTest" operator="greaterOrEqual" value="18.5"/>
														<Node score="-0.20590267">
															<SimplePredicate field="EntryPoint.Other" operator="greaterOrEqual" value="0.5"/>
														</Node>
													</Node>
													<Node score="-0.05593218">
														<SimplePredicate field="MonthsSinceLastTest" operator="greaterOrEqual" value="10.5"/>
													</Node>
												</Node>
												<Node score="-0.312826">
													<SimplePredicate field="PC5" operator="greaterOrEqual" value="1.5016394"/>
													<Node score="-0.07065925">
														<SimplePredicate field="MonthsSinceLastTest" operator="lessThan" value="10.0"/>
													</Node>
												</Node>
												<Node score="-0.049394414">
													<SimplePredicate field="MonthsSinceLastTest" operator="lessThan" value="14.5"/>
												</Node>
											</Node>
											<Node score="-0.12843192">
												<SimplePredicate field="AgeAtTest" operator="greaterOrEqual" value="20.5"/>
												<Node score="0.07960184">
													<SimplePredicate field="MaritalStatus.Married" operator="lessThan" value="0.5"/>
													<Node score="-0.14451957">
														<SimplePredicate field="AgeAtTest" operator="greaterOrEqual" value="36.5"/>
													</Node>
												</Node>
												<Node score="-0.197362">
													<SimplePredicate field="EntryPoint.VCT" operator="lessThan" value="0.5"/>
												</Node>
											</Node>
											<Node score="-0.2237265">
												<SimplePredicate field="PC5" operator="greaterOrEqual" value="-2.9616392"/>
												<Node score="-0.28735352">
													<SimplePredicate field="EntryPoint.OPD" operator="greaterOrEqual" value="0.5"/>
												</Node>
											</Node>
											<Node score="0.14748882">
												<SimplePredicate field="MonthsSinceLastTest" operator="lessThan" value="0.5"/>
											</Node>
										</Node>
										<Node score="-0.22754513">
											<SimplePredicate field="MonthsSinceLastTest" operator="greaterOrEqual" value="13.5"/>
											<Node score="-0.2739683">
												<SimplePredicate field="PC7" operator="greaterOrEqual" value="-0.024014533"/>
												<Node score="-0.05122627">
													<SimplePredicate field="MaritalStatus.Married" operator="greaterOrEqual" value="0.5"/>
												</Node>
											</Node>
											<Node score="-0.22095014">
												<SimplePredicate field="AgeAtTest" operator="greaterOrEqual" value="24.5"/>
												<Node score="0.37321645">
													<SimplePredicate field="MonthsSinceLastTest" operator="lessThan" value="21.5"/>
												</Node>
											</Node>
										</Node>
										<Node score="-0.29789752">
											<SimplePredicate field="TBScreening.No.Presumed.TB" operator="greaterOrEqual" value="0.5"/>
											<Node score="0.04450544">
												<SimplePredicate field="MaritalStatus.Minor" operator="lessThan" value="0.5"/>
												<Node score="-0.22996628">
													<SimplePredicate field="PC3" operator="greaterOrEqual" value="2.6570482"/>
												</Node>
											</Node>
											<Node score="-0.117803305">
												<SimplePredicate field="MonthsSinceLastTest" operator="greaterOrEqual" value="12.5"/>
											</Node>
										</Node>
										<Node score="-0.026791753">
											<SimplePredicate field="MonthsSinceLastTest" operator="greaterOrEqual" value="0.5"/>
											<Node score="-0.20927441">
												<SimplePredicate field="Gender.Male" operator="greaterOrEqual" value="0.5"/>
											</Node>
										</Node>
									</Node>
									<Node score="0.01064715">
										<SimplePredicate field="TBScreening.No.Presumed.TB" operator="lessThan" value="0.5"/>
										<Node score="-0.10089546">
											<SimplePredicate field="EntryPoint.PEDS" operator="lessThan" value="0.5"/>
											<Node score="0.3400178">
												<SimplePredicate field="MonthsSinceLastTest" operator="lessThan" value="8.5"/>
											</Node>
											<Node score="0.33142108">
												<SimplePredicate field="MonthsSinceLastTest" operator="greaterOrEqual" value="9.5"/>
												<Node score="0.086088106">
													<SimplePredicate field="AgeAtTest" operator="greaterOrEqual" value="35.5"/>
												</Node>
											</Node>
										</Node>
									</Node>
									<Node score="0.39821678">
										<SimplePredicate field="AgeAtTest" operator="greaterOrEqual" value="15.5"/>
										<Node score="-0.058144532">
											<SimplePredicate field="Gender.Male" operator="greaterOrEqual" value="0.5"/>
											<Node score="-0.27323288">
												<SimplePredicate field="PC2" operator="greaterOrEqual" value="3.5470452"/>
												<Node score="0.111922875">
													<SimplePredicate field="AgeAtTest" operator="greaterOrEqual" value="60.5"/>
												</Node>
											</Node>
											<Node score="-0.2068307">
												<SimplePredicate field="PC3" operator="greaterOrEqual" value="3.1607456"/>
											</Node>
										</Node>
										<Node score="-0.20709716">
											<SimplePredicate field="PC3" operator="greaterOrEqual" value="3.0033326"/>
											<Node score="-0.025016468">
												<SimplePredicate field="MaritalStatus.Polygamous" operator="lessThan" value="0.5"/>
											</Node>
										</Node>
										<Node score="0.0049614413">
											<SimplePredicate field="AgeAtTest" operator="greaterOrEqual" value="16.5"/>
										</Node>
									</Node>
									<Node score="-0.30965906">
										<SimplePredicate field="MonthsSinceLastTest" operator="greaterOrEqual" value="1.5"/>
										<Node score="-0.015926834">
											<SimplePredicate field="PC1" operator="greaterOrEqual" value="7.645719"/>
											<Node score="-0.16998203">
												<SimplePredicate field="AgeAtTest" operator="greaterOrEqual" value="8.5"/>
											</Node>
										</Node>
									</Node>
									<Node score="-0.024843007">
										<SimplePredicate field="PC6" operator="greaterOrEqual" value="-0.5652294"/>
										<Node score="-0.24828447">
											<SimplePredicate field="AgeAtTest" operator="greaterOrEqual" value="1.5"/>
										</Node>
									</Node>
									<Node score="0.05565608">
										<SimplePredicate field="EntryPoint.OPD" operator="lessThan" value="0.5"/>
									</Node>
								</Node>
							</TreeModel>
						</Segment>
						<Segment id="9">
							<True/>
							<TreeModel functionName="regression" noTrueChildStrategy="returnLastPrediction" x-mathContext="float">
								<MiningSchema>
									<MiningField name="PC1"/>
									<MiningField name="PC2"/>
									<MiningField name="PC3"/>
									<MiningField name="PC4"/>
									<MiningField name="PC5"/>
									<MiningField name="PC6"/>
									<MiningField name="PC7"/>
									<MiningField name="PC8"/>
									<MiningField name="PC9"/>
									<MiningField name="PC10"/>
									<MiningField name="AgeAtTest"/>
									<MiningField name="MonthsSinceLastTest"/>
									<MiningField name="Gender.Male"/>
									<MiningField name="MaritalStatus.Married"/>
									<MiningField name="MaritalStatus.Polygamous"/>
									<MiningField name="MaritalStatus.Minor"/>
									<MiningField name="ClientTestedAs.Individual"/>
									<MiningField name="EntryPoint.VCT"/>
									<MiningField name="EntryPoint.MTC"/>
									<MiningField name="EntryPoint.HB"/>
									<MiningField name="TestingStrategy.HB"/>
									<MiningField name="TestingStrategy.MOBILE"/>
									<MiningField name="TBScreening.No.Presumed.TB"/>
								</MiningSchema>
								<Node score="0.21048178">
									<True/>
									<Node score="-0.30541372">
										<SimplePredicate field="TestingStrategy.HB" operator="lessThan" value="0.5"/>
										<Node score="-0.14287135">
											<SimplePredicate field="TestingStrategy.MOBILE" operator="lessThan" value="0.5"/>
											<Node score="-0.17583048">
												<SimplePredicate field="AgeAtTest" operator="greaterOrEqual" value="25.5"/>
												<Node score="0.13453373">
													<SimplePredicate field="MonthsSinceLastTest" operator="lessThan" value="2.5"/>
													<Node score="0.863584">
														<SimplePredicate field="PC7" operator="greaterOrEqual" value="1.2248125"/>
														<Node score="0.26965263">
															<SimplePredicate field="PC7" operator="greaterOrEqual" value="2.0413098"/>
														</Node>
													</Node>
													<Node score="-0.119677745">
														<SimplePredicate field="PC3" operator="greaterOrEqual" value="-3.4628367"/>
													</Node>
												</Node>
												<Node score="0.008949993">
													<SimplePredicate field="MaritalStatus.Polygamous" operator="lessThan" value="0.5"/>
													<Node score="-0.29165724">
														<SimplePredicate field="AgeAtTest" operator="greaterOrEqual" value="52.5"/>
													</Node>
												</Node>
												<Node score="-0.06936125">
													<SimplePredicate field="PC9" operator="greaterOrEqual" value="0.73040473"/>
												</Node>
											</Node>
											<Node score="0.1695608">
												<SimplePredicate field="TBScreening.No.Presumed.TB" operator="lessThan" value="0.5"/>
												<Node score="0.18135771">
													<SimplePredicate field="AgeAtTest" operator="greaterOrEqual" value="18.5"/>
													<Node score="-0.04667089">
														<SimplePredicate field="PC2" operator="greaterOrEqual" value="-2.2048683"/>
													</Node>
												</Node>
												<Node score="-0.26770043">
													<SimplePredicate field="PC3" operator="greaterOrEqual" value="-0.24802086"/>
												</Node>
											</Node>
											<Node score="-0.12381239">
												<SimplePredicate field="PC10" operator="greaterOrEqual" value="1.284145"/>
												<Node score="0.20659958">
													<SimplePredicate field="MonthsSinceLastTest" operator="greaterOrEqual" value="5.0"/>
												</Node>
											</Node>
											<Node score="-0.23358977">
												<SimplePredicate field="PC2" operator="greaterOrEqual" value="-3.789692"/>
											</Node>
										</Node>
										<Node score="-0.13753799">
											<SimplePredicate field="MonthsSinceLastTest" operator="greaterOrEqual" value="12.5"/>
											<Node score="-0.25637075">
												<SimplePredicate field="PC7" operator="greaterOrEqual" value="-0.024014533"/>
												<Node score="-0.044145193">
													<SimplePredicate field="MaritalStatus.Married" operator="greaterOrEqual" value="0.5"/>
												</Node>
											</Node>
											<Node score="-0.28359237">
												<SimplePredicate field="Gender.Male" operator="greaterOrEqual" value="0.5"/>
												<Node score="0.07029207">
													<SimplePredicate field="AgeAtTest" operator="greaterOrEqual" value="33.5"/>
												</Node>
											</Node>
											<Node score="0.46239668">
												<SimplePredicate field="AgeAtTest" operator="greaterOrEqual" value="20.5"/>
											</Node>
										</Node>
										<Node score="-0.12732047">
											<SimplePredicate field="TBScreening.No.Presumed.TB" operator="greaterOrEqual" value="0.5"/>
											<Node score="0.023901492">
												<SimplePredicate field="MaritalStatus.Minor" operator="lessThan" value="0.5"/>
												<Node score="-0.21998608">
													<SimplePredicate field="PC3" operator="greaterOrEqual" value="2.911234"/>
												</Node>
											</Node>
											<Node score="-0.28889075">
												<SimplePredicate field="ClientTestedAs.Individual" operator="greaterOrEqual" value="0.5"/>
											</Node>
										</Node>
										<Node score="0.30366537">
											<SimplePredicate field="PC7" operator="greaterOrEqual" value="-0.7223367"/>
											<Node score="-0.083942994">
												<SimplePredicate field="MonthsSinceLastTest" operator="greaterOrEqual" value="3.5"/>
											</Node>
										</Node>
										<Node score="0.055019367">
											<SimplePredicate field="AgeAtTest" operator="greaterOrEqual" value="42.5"/>
										</Node>
									</Node>
									<Node score="-0.019059263">
										<SimplePredicate field="AgeAtTest" operator="greaterOrEqual" value="12.5"/>
										<Node score="-0.22764184">
											<SimplePredicate field="MonthsSinceLastTest" operator="lessThan" value="2.5"/>
											<Node score="0.43996754">
												<SimplePredicate field="PC7" operator="greaterOrEqual" value="1.0386863"/>
												<Node score="-0.11351318">
													<SimplePredicate field="PC3" operator="greaterOrEqual" value="1.3213245"/>
												</Node>
												<Node score="0.095885135">
													<SimplePredicate field="AgeAtTest" operator="greaterOrEqual" value="35.5"/>
												</Node>
											</Node>
											<Node score="0.18686411">
												<SimplePredicate field="PC8" operator="greaterOrEqual" value="-0.36947808"/>
												<Node score="0.0011469977">
													<SimplePredicate field="EntryPoint.MTC" operator="lessThan" value="0.5"/>
												</Node>
											</Node>
											<Node score="0.064624585">
												<SimplePredicate field="EntryPoint.HB" operator="lessThan" value="0.5"/>
											</Node>
										</Node>
										<Node score="0.113732785">
											<SimplePredicate field="MaritalStatus.Married" operator="lessThan" value="0.5"/>
											<Node score="0.085695446">
												<SimplePredicate field="PC10" operator="greaterOrEqual" value="-0.5159997"/>
												<Node score="0.3590834">
													<SimplePredicate field="PC6" operator="greaterOrEqual" value="1.6145084"/>
												</Node>
											</Node>
											<Node score="-0.30226734">
												<SimplePredicate field="EntryPoint.VCT" operator="lessThan" value="0.5"/>
											</Node>
										</Node>
										<Node score="0.17048304">
											<SimplePredicate field="PC5" operator="greaterOrEqual" value="0.03839568"/>
											<Node score="-0.048289124">
												<SimplePredicate field="ClientTestedAs.Individual" operator="greaterOrEqual" value="0.5"/>
											</Node>
										</Node>
										<Node score="-0.18890236">
											<SimplePredicate field="TBScreening.No.Presumed.TB" operator="greaterOrEqual" value="0.5"/>
										</Node>
									</Node>
									<Node score="0.075583756">
										<SimplePredicate field="PC9" operator="greaterOrEqual" value="-0.76677406"/>
										<Node score="-0.2594154">
											<SimplePredicate field="PC7" operator="greaterOrEqual" value="-1.351701"/>
											<Node score="0.042688847">
												<SimplePredicate field="PC4" operator="greaterOrEqual" value="3.1986094"/>
											</Node>
											<Node score="-0.022768687">
												<SimplePredicate field="PC1" operator="greaterOrEqual" value="7.711485"/>
											</Node>
										</Node>
									</Node>
									<Node score="-0.1986991">
										<SimplePredicate field="AgeAtTest" operator="greaterOrEqual" value="5.5"/>
									</Node>
								</Node>
							</TreeModel>
						</Segment>
						<Segment id="10">
							<True/>
							<TreeModel functionName="regression" noTrueChildStrategy="returnLastPrediction" x-mathContext="float">
								<MiningSchema>
									<MiningField name="PC2"/>
									<MiningField name="PC3"/>
									<MiningField name="PC5"/>
									<MiningField name="PC6"/>
									<MiningField name="PC7"/>
									<MiningField name="PC9"/>
									<MiningField name="PC10"/>
									<MiningField name="AgeAtTest"/>
									<MiningField name="MonthsSinceLastTest"/>
									<MiningField name="Gender.Male"/>
									<MiningField name="KeyPopulationType.GP"/>
									<MiningField name="MaritalStatus.Married"/>
									<MiningField name="MaritalStatus.Minor"/>
									<MiningField name="ClientTestedAs.Individual"/>
									<MiningField name="EntryPoint.VCT"/>
									<MiningField name="EntryPoint.HB"/>
									<MiningField name="TestingStrategy.HB"/>
									<MiningField name="TestingStrategy.MOBILE"/>
									<MiningField name="TBScreening.No.Presumed.TB"/>
									<MiningField name="ClientSelfTested.No"/>
								</MiningSchema>
								<Node score="0.037591908">
									<True/>
									<Node score="-0.27385417">
										<SimplePredicate field="TestingStrategy.HB" operator="lessThan" value="0.5"/>
										<Node score="-0.13959856">
											<SimplePredicate field="TestingStrategy.MOBILE" operator="lessThan" value="0.5"/>
											<Node score="-0.059110474">
												<SimplePredicate field="AgeAtTest" operator="greaterOrEqual" value="20.5"/>
												<Node score="0.2051495">
													<SimplePredicate field="TBScreening.No.Presumed.TB" operator="lessThan" value="0.5"/>
													<Node score="0.20379832">
														<SimplePredicate field="PC3" operator="greaterOrEqual" value="0.8203607"/>
														<Node score="-0.17843677">
															<SimplePredicate field="AgeAtTest" operator="greaterOrEqual" value="56.5"/>
														</Node>
													</Node>
													<Node score="-0.17807257">
														<SimplePredicate field="PC9" operator="greaterOrEqual" value="-0.8682943"/>
													</Node>
												</Node>
												<Node score="0.27307853">
													<SimplePredicate field="MonthsSinceLastTest" operator="greaterOrEqual" value="31.5"/>
													<Node score="-0.14366396">
														<SimplePredicate field="AgeAtTest" operator="greaterOrEqual" value="42.5"/>
													</Node>
												</Node>
												<Node score="-0.1442398">
													<SimplePredicate field="EntryPoint.VCT" operator="lessThan" value="0.5"/>
												</Node>
											</Node>
											<Node score="-0.10614197">
												<SimplePredicate field="AgeAtTest" operator="greaterOrEqual" value="15.5"/>
												<Node score="-0.23881595">
													<SimplePredicate field="TBScreening.No.Presumed.TB" operator="lessThan" value="0.5"/>
													<Node score="0.17374276">
														<SimplePredicate field="AgeAtTest" operator="greaterOrEqual" value="18.5"/>
													</Node>
												</Node>
												<Node score="-0.25601953">
													<SimplePredicate field="ClientTestedAs.Individual" operator="greaterOrEqual" value="0.5"/>
												</Node>
											</Node>
											<Node score="-0.22016592">
												<SimplePredicate field="PC2" operator="greaterOrEqual" value="-3.789692"/>
												<Node score="0.063273154">
													<SimplePredicate field="PC10" operator="greaterOrEqual" value="1.1494697"/>
												</Node>
											</Node>
											<Node score="0.39966658">
												<SimplePredicate field="AgeAtTest" operator="greaterOrEqual" value="12.5"/>
											</Node>
										</Node>
										<Node score="-0.09220828">
											<SimplePredicate field="MonthsSinceLastTest" operator="lessThan" value="12.5"/>
											<Node score="-0.06777763">
												<SimplePredicate field="MaritalStatus.Minor" operator="lessThan" value="0.5"/>
												<Node score="-0.19648473">
													<SimplePredicate field="PC5" operator="greaterOrEqual" value="1.3681613"/>
													<Node score="0.10833582">
														<SimplePredicate field="ClientSelfTested.No" operator="greaterOrEqual" value="0.5"/>
													</Node>
												</Node>
												<Node score="-0.26860425">
													<SimplePredicate field="KeyPopulationType.GP" operator="greaterOrEqual" value="0.5"/>
												</Node>
											</Node>
											<Node score="-0.0024693224">
												<SimplePredicate field="TBScreening.No.Presumed.TB" operator="lessThan" value="0.5"/>
												<Node score="-0.16191196">
													<SimplePredicate field="Gender.Male" operator="greaterOrEqual" value="0.5"/>
												</Node>
											</Node>
											<Node score="-0.27726778">
												<SimplePredicate field="ClientTestedAs.Individual" operator="greaterOrEqual" value="0.5"/>
											</Node>
										</Node>
										<Node score="-0.2907205">
											<SimplePredicate field="PC10" operator="greaterOrEqual" value="-0.06288482"/>
											<Node score="0.28302202">
												<SimplePredicate field="ClientSelfTested.No" operator="greaterOrEqual" value="0.5"/>
												<Node score="0.008758755">
													<SimplePredicate field="Gender.Male" operator="greaterOrEqual" value="0.5"/>
												</Node>
											</Node>
										</Node>
										<Node score="-0.020115634">
											<SimplePredicate field="MaritalStatus.Married" operator="greaterOrEqual" value="0.5"/>
										</Node>
									</Node>
									<Node score="0.24448155">
										<SimplePredicate field="TBScreening.No.Presumed.TB" operator="lessThan" value="0.5"/>
										<Node score="-0.03906823">
											<SimplePredicate field="PC3" operator="greaterOrEqual" value="3.1607456"/>
											<Node score="0.08817783">
												<SimplePredicate field="EntryPoint.HB" operator="greaterOrEqual" value="0.5"/>
											</Node>
										</Node>
									</Node>
									<Node score="0.013410683">
										<SimplePredicate field="AgeAtTest" operator="greaterOrEqual" value="15.5"/>
										<Node score="-0.21756153">
											<SimplePredicate field="Gender.Male" operator="greaterOrEqual" value="0.5"/>
											<Node score="-0.2496033">
												<SimplePredicate field="PC2" operator="greaterOrEqual" value="3.265099"/>
												<Node score="0.029573182">
													<SimplePredicate field="AgeAtTest" operator="greaterOrEqual" value="44.5"/>
												</Node>
											</Node>
											<Node score="-0.03364139">
												<SimplePredicate field="AgeAtTest" operator="greaterOrEqual" value="20.5"/>
											</Node>
										</Node>
										<Node score="0.15013814">
											<SimplePredicate field="PC7" operator="greaterOrEqual" value="-0.8397057"/>
											<Node score="0.013258516">
												<SimplePredicate field="PC5" operator="greaterOrEqual" value="-0.27629516"/>
											</Node>
										</Node>
										<Node score="-0.15029106">
											<SimplePredicate field="AgeAtTest" operator="greaterOrEqual" value="31.5"/>
										</Node>
									</Node>
									<Node score="-0.28743368">
										<SimplePredicate field="MonthsSinceLastTest" operator="greaterOrEqual" value="1.5"/>
										<Node score="-0.106575154">
											<SimplePredicate field="PC6" operator="greaterOrEqual" value="1.6312827"/>
										</Node>
									</Node>
									<Node score="-0.23685965">
										<SimplePredicate field="PC6" operator="greaterOrEqual" value="-0.5652294"/>
										<Node score="-0.054752503">
											<SimplePredicate field="MaritalStatus.Married" operator="lessThan" value="0.5"/>
										</Node>
									</Node>
									<Node score="-0.22295034">
										<SimplePredicate field="PC7" operator="greaterOrEqual" value="2.0413098"/>
									</Node>
								</Node>
							</TreeModel>
						</Segment>
						<Segment id="11">
							<True/>
							<TreeModel functionName="regression" noTrueChildStrategy="returnLastPrediction" x-mathContext="float">
								<MiningSchema>
									<MiningField name="PC1"/>
									<MiningField name="PC2"/>
									<MiningField name="PC3"/>
									<MiningField name="PC5"/>
									<MiningField name="PC8"/>
									<MiningField name="PC9"/>
									<MiningField name="AgeAtTest"/>
									<MiningField name="MonthsSinceLastTest"/>
									<MiningField name="Gender.Male"/>
									<MiningField name="KeyPopulationType.GP"/>
									<MiningField name="MaritalStatus.Married"/>
									<MiningField name="MaritalStatus.Polygamous"/>
									<MiningField name="MaritalStatus.Minor"/>
									<MiningField name="ClientTestedAs.Individual"/>
									<MiningField name="EntryPoint.VCT"/>
									<MiningField name="EntryPoint.OPD"/>
									<MiningField name="EntryPoint.Other"/>
									<MiningField name="EntryPoint.PEDS"/>
									<MiningField name="TestingStrategy.VCT"/>
									<MiningField name="TestingStrategy.HB"/>
									<MiningField name="TestingStrategy.MOBILE"/>
									<MiningField name="TBScreening.No.Presumed.TB"/>
									<MiningField name="ClientSelfTested.No"/>
								</MiningSchema>
								<Node score="-0.04503699">
									<True/>
									<Node score="-0.2784423">
										<SimplePredicate field="TestingStrategy.MOBILE" operator="greaterOrEqual" value="0.5"/>
										<Node score="-0.13765569">
											<SimplePredicate field="MonthsSinceLastTest" operator="lessThan" value="12.5"/>
											<Node score="-0.058150884">
												<SimplePredicate field="MaritalStatus.Minor" operator="lessThan" value="0.5"/>
												<Node score="0.14948379">
													<SimplePredicate field="PC5" operator="greaterOrEqual" value="1.3681613"/>
													<Node score="0.27704462">
														<SimplePredicate field="AgeAtTest" operator="greaterOrEqual" value="41.5"/>
													</Node>
													<Node score="-0.06317101">
														<SimplePredicate field="AgeAtTest" operator="greaterOrEqual" value="23.5"/>
													</Node>
												</Node>
												<Node score="-0.24842712">
													<SimplePredicate field="KeyPopulationType.GP" operator="greaterOrEqual" value="0.5"/>
												</Node>
											</Node>
											<Node score="0.1985257">
												<SimplePredicate field="TBScreening.No.Presumed.TB" operator="lessThan" value="0.5"/>
												<Node score="-0.22481601">
													<SimplePredicate field="MonthsSinceLastTest" operator="lessThan" value="8.5"/>
													<Node score="-0.016915673">
														<SimplePredicate field="MonthsSinceLastTest" operator="lessThan" value="3.5"/>
													</Node>
												</Node>
												<Node score="-0.12595831">
													<SimplePredicate field="Gender.Male" operator="greaterOrEqual" value="0.5"/>
												</Node>
											</Node>
											<Node score="-0.035811864">
												<SimplePredicate field="ClientTestedAs.Individual" operator="greaterOrEqual" value="0.5"/>
												<Node score="-0.26810038">
													<SimplePredicate field="PC8" operator="greaterOrEqual" value="0.27307904"/>
												</Node>
											</Node>
											<Node score="0.11392195">
												<SimplePredicate field="AgeAtTest" operator="greaterOrEqual" value="34.5"/>
											</Node>
										</Node>
										<Node score="-0.2608737">
											<SimplePredicate field="AgeAtTest" operator="greaterOrEqual" value="24.5"/>
											<Node score="0.031638075">
												<SimplePredicate field="ClientSelfTested.No" operator="greaterOrEqual" value="0.5"/>
												<Node score="-0.2202161">
													<SimplePredicate field="AgeAtTest" operator="greaterOrEqual" value="49.5"/>
												</Node>
												<Node score="0.48589134">
													<SimplePredicate field="AgeAtTest" operator="greaterOrEqual" value="42.5"/>
												</Node>
											</Node>
										</Node>
										<Node score="-0.195659">
											<SimplePredicate field="MonthsSinceLastTest" operator="lessThan" value="13.5"/>
											<Node score="0.041643795">
												<SimplePredicate field="AgeAtTest" operator="greaterOrEqual" value="19.5"/>
											</Node>
										</Node>
									</Node>
									<Node score="0.007058716">
										<SimplePredicate field="EntryPoint.OPD" operator="greaterOrEqual" value="0.5"/>
										<Node score="-0.20647888">
											<SimplePredicate field="AgeAtTest" operator="greaterOrEqual" value="19.5"/>
											<Node score="-0.1864735">
												<SimplePredicate field="MaritalStatus.Married" operator="lessThan" value="2.000001"/>
												<Node score="-0.24672492">
													<SimplePredicate field="PC8" operator="greaterOrEqual" value="-0.85695916"/>
													<Node score="-0.004098887">
														<SimplePredicate field="TBScreening.No.Presumed.TB" operator="lessThan" value="2.000001"/>
													</Node>
												</Node>
												<Node score="0.76555836">
													<SimplePredicate field="MonthsSinceLastTest" operator="lessThan" value="48.0"/>
												</Node>
											</Node>
											<Node score="0.021893848">
												<SimplePredicate field="PC9" operator="greaterOrEqual" value="0.51701003"/>
												<Node score="-0.24940144">
													<SimplePredicate field="PC2" operator="greaterOrEqual" value="3.9800873"/>
												</Node>
											</Node>
											<Node score="-0.089971885">
												<SimplePredicate field="MonthsSinceLastTest" operator="greaterOrEqual" value="11.5"/>
											</Node>
										</Node>
										<Node score="-0.2153624">
											<SimplePredicate field="TestingStrategy.VCT" operator="lessThan" value="0.5"/>
											<Node score="-0.02191855">
												<SimplePredicate field="AgeAtTest" operator="greaterOrEqual" value="15.5"/>
												<Node score="-0.25189447">
													<SimplePredicate field="MonthsSinceLastTest" operator="lessThan" value="30.0"/>
												</Node>
											</Node>
											<Node score="0.5490486">
												<SimplePredicate field="AgeAtTest" operator="greaterOrEqual" value="11.5"/>
											</Node>
										</Node>
										<Node score="0.2929732">
											<SimplePredicate field="TBScreening.No.Presumed.TB" operator="lessThan" value="0.5"/>
											<Node score="-0.23994154">
												<SimplePredicate field="PC3" operator="greaterOrEqual" value="-0.24802086"/>
											</Node>
										</Node>
										<Node score="-0.26595694">
											<SimplePredicate field="PC5" operator="greaterOrEqual" value="-2.9616392"/>
										</Node>
									</Node>
									<Node score="0.29133427">
										<SimplePredicate field="PC1" operator="greaterOrEqual" value="-9.44746"/>
										<Node score="-0.090160556">
											<SimplePredicate field="PC5" operator="greaterOrEqual" value="-3.1558878"/>
											<Node score="-0.26565412">
												<SimplePredicate field="EntryPoint.PEDS" operator="greaterOrEqual" value="0.5"/>
												<Node score="-0.07047186">
													<SimplePredicate field="AgeAtTest" operator="greaterOrEqual" value="36.5"/>
												</Node>
											</Node>
											<Node score="-7.702863E-4">
												<SimplePredicate field="AgeAtTest" operator="greaterOrEqual" value="21.5"/>
											</Node>
										</Node>
										<Node score="0.5353719">
											<SimplePredicate field="TestingStrategy.VCT" operator="lessThan" value="2.000001"/>
										</Node>
										<Node score="-0.2565147">
											<SimplePredicate field="EntryPoint.VCT" operator="greaterOrEqual" value="0.5"/>
										</Node>
									</Node>
									<Node score="0.092624724">
										<SimplePredicate field="MaritalStatus.Polygamous" operator="greaterOrEqual" value="0.5"/>
										<Node score="0.023721159">
											<SimplePredicate field="AgeAtTest" operator="greaterOrEqual" value="33.0"/>
											<Node score="-0.21804202">
												<SimplePredicate field="PC2" operator="greaterOrEqual" value="-3.5437202"/>
											</Node>
										</Node>
										<Node score="0.6041028">
											<SimplePredicate field="PC2" operator="greaterOrEqual" value="-3.5437202"/>
										</Node>
									</Node>
									<Node score="-0.24360399">
										<SimplePredicate field="TestingStrategy.HB" operator="lessThan" value="0.5"/>
										<Node score="0.17503288">
											<SimplePredicate field="MonthsSinceLastTest" operator="greaterOrEqual" value="20.0"/>
										</Node>
									</Node>
									<Node score="-0.12804337">
										<SimplePredicate field="EntryPoint.Other" operator="lessThan" value="0.5"/>
									</Node>
								</Node>
							</TreeModel>
						</Segment>
						<Segment id="12">
							<True/>
							<TreeModel functionName="regression" noTrueChildStrategy="returnLastPrediction" x-mathContext="float">
								<MiningSchema>
									<MiningField name="PC1"/>
									<MiningField name="PC2"/>
									<MiningField name="PC3"/>
									<MiningField name="PC5"/>
									<MiningField name="PC6"/>
									<MiningField name="PC7"/>
									<MiningField name="PC8"/>
									<MiningField name="AgeAtTest"/>
									<MiningField name="MonthsSinceLastTest"/>
									<MiningField name="Gender.Male"/>
									<MiningField name="MaritalStatus.Minor"/>
									<MiningField name="EverTestedForHIV.Yes"/>
									<MiningField name="EntryPoint.OPD"/>
									<MiningField name="EntryPoint.MTC"/>
									<MiningField name="EntryPoint.IPD"/>
									<MiningField name="EntryPoint.HB"/>
									<MiningField name="TestingStrategy.HB"/>
									<MiningField name="TestingStrategy.MOBILE"/>
									<MiningField name="TBScreening.No.Presumed.TB"/>
									<MiningField name="ClientSelfTested.No"/>
								</MiningSchema>
								<Node score="-0.03108037">
									<True/>
									<Node score="-0.07580999">
										<SimplePredicate field="TestingStrategy.MOBILE" operator="greaterOrEqual" value="0.5"/>
										<Node score="-0.22824296">
											<SimplePredicate field="MonthsSinceLastTest" operator="greaterOrEqual" value="13.5"/>
											<Node score="-0.20568219">
												<SimplePredicate field="MonthsSinceLastTest" operator="lessThan" value="21.0"/>
												<Node score="0.17055556">
													<SimplePredicate field="AgeAtTest" operator="greaterOrEqual" value="24.5"/>
													<Node score="-0.14739312">
														<SimplePredicate field="AgeAtTest" operator="greaterOrEqual" value="49.0"/>
													</Node>
													<Node score="0.3506143">
														<SimplePredicate field="AgeAtTest" operator="greaterOrEqual" value="39.5"/>
													</Node>
												</Node>
											</Node>
										</Node>
										<Node score="0.31173417">
											<SimplePredicate field="PC5" operator="greaterOrEqual" value="1.7721285"/>
										</Node>
										<Node score="-0.2370956">
											<SimplePredicate field="MaritalStatus.Minor" operator="lessThan" value="0.5"/>
											<Node score="0.1969568">
												<SimplePredicate field="AgeAtTest" operator="greaterOrEqual" value="41.5"/>
											</Node>
											<Node score="0.018747572">
